const model = {
  "neuronCounts": [
    5,
    15,
    8
  ],
  "classes": [
    "car",
    "fish",
    "house",
    "tree",
    "bicycle",
    "guitar",
    "pencil",
    "clock"
  ],
  "network": {
    "levels": [
      {
        "weights": [
          [
            6.8174153e-316,
            0.38407696861501384,
            -0.9456090902078029,
            -0.8044622043043783,
            -9.383552536315387e-09,
            -0.7248700017357137,
            1.391598909530978,
            0.3121310781783945,
            -3.4613673798781963e-28,
            0.4418035356154741,
            -0.33284130759179115,
            0.28470920872628097,
            -0.42129384194368064,
            1.2801250379903009,
            -2.4636163189142657
          ],
          [
            6.19382146e-316,
            0.5797087283076208,
            1.612147467163366,
            0.014733034777875988,
            -2.9068565706013767e-09,
            -0.02087264419731678,
            0.3885620164755824,
            -0.46634101338990824,
            9.10974783797655e-25,
            1.7817267417990983,
            0.8848570644496461,
            -1.1129495554933322,
            0.18288188110224465,
            -1.6249896138760305,
            1.324541248902087
          ],
          [
            -6.91473913e-316,
            -2.749174078588937,
            1.0488870741072496,
            2.1580761901522894,
            -3.978177182103746e-06,
            -1.2490712536640804,
            -2.1762487860535367,
            1.9066630125006983,
            2.3042870145070122e-94,
            3.704519001539878,
            -0.67726268231605,
            5.783283595076232,
            1.1685560521637235,
            2.5156288966165623,
            -2.028984329170951
          ],
          [
            -1.07250793e-315,
            1.4322481167253374,
            -0.7725692939024604,
            -0.6087413576221868,
            -1.3994381242527026e-07,
            -1.7108319567877712,
            1.1484952946337257,
            -1.1387025226802583,
            -5.636942869322094e-18,
            -0.8492527719057826,
            -1.6838810654179186,
            1.0535518278251352,
            -0.4456815394301688,
            0.16012936403683412,
            2.3283360070357673
          ],
          [
            -6.3874743e-316,
            1.2920979327470108,
            -0.18456813587245946,
            0.9822729055169248,
            -1.690876507747297e-19,
            0.25012476559602415,
            -0.3668919497357838,
            -0.319683459686744,
            1.0979528717162227e-13,
            -0.2844040071837465,
            -0.47968658862615243,
            -1.3938557404269922,
            -4.900683534998139,
            0.30640382216747236,
            -0.03777485639354901
          ]
        ],
        "biases": [
          -0.3665861100269665,
          0.9879786630694107,
          0.5818579205969417,
          0.38178894992397716,
          -0.002350614365666806,
          2.2168467634115827,
          0.7006874394086957,
          1.3953081295460004,
          -0.21123734001882133,
          0.07076796992790203,
          1.580910197436028,
          -0.2793827654630061,
          1.226441206146705,
          0.3074238773471157,
          -1.0253527855478721
        ],
        "inputs": [
          0,
          0,
          0,
          0,
          0
        ],
        "outputs": [
          0,
          0,
          0,
          0,
          0,
          0,
          0,
          0,
          0,
          0,
          0,
          0,
          0,
          0,
          0
        ]
      },
      {
        "weights": [
          [
            4.35561516e-315,
            2.88246541e-315,
            -1.82649713e-315,
            -5.7192883e-316,
            2.85260632e-315,
            -2.774021014e-315,
            -1.577423837e-315,
            6.999216e-316
          ],
          [
            0.01295546727255332,
            0.050283715521066114,
            0.11985558360808123,
            0.39298809157879633,
            1.2073374349769876,
            -1.0403842245813981,
            -0.6935746223584397,
            0.2267130697978188
          ],
          [
            -4.119391184824867,
            -0.7590100591226318,
            -0.4431306254658809,
            0.9383495519437605,
            -2.533857186567038,
            1.18718482648385,
            1.9078961547387814,
            0.11868307377426757
          ],
          [
            -0.48048363601785327,
            0.03397614157298888,
            -0.2389559274213575,
            1.0348547126620586,
            -1.99009508441129,
            -2.7441526318097114,
            1.238432348747907,
            2.7062310321752046
          ],
          [
            1.2353785839060932e-12,
            -2.3697037244591683e-07,
            -1.944090131822895e-80,
            2.9975110931446096e-96,
            5.357913987642903e-56,
            -3.809811018463272e-53,
            1.2651031335741684e-08,
            -1.671249244985368e-60
          ],
          [
            -3.0949607078194097,
            0.6656500037097646,
            1.3486614286923098,
            -2.872876977393751,
            1.360081263487603,
            2.300360576675253,
            1.0013665480562792,
            -4.606987922587586
          ],
          [
            0.4422158404339463,
            -0.13156822176408323,
            0.5858390449742068,
            0.22622263202897536,
            0.25064910027213455,
            -0.9499842048449282,
            -1.6829509974004482,
            -0.13196043595917714
          ],
          [
            0.297309104476884,
            -0.05650004618163748,
            0.2115371840203659,
            -2.806917187076481,
            -0.719451425285245,
            2.402285775613372,
            0.636468281082136,
            -2.2074994955927685
          ],
          [
            1.4242541909222892e-131,
            -4.066467187837458e-96,
            1.3424547233148817e-63,
            -6.8220329827872574e-74,
            -2.560045708151381e-156,
            2.6782555569388583e-142,
            -2.3092696608488166e-151,
            3.2604047659836104e-144
          ],
          [
            -0.20846807385992142,
            -1.7970896224689625,
            -2.0873811947820693,
            0.6299252489421772,
            -4.499922412894115,
            1.5105418762088612,
            1.8723787198887798,
            0.41190510417538356
          ],
          [
            -2.912826678469557,
            0.0921952617271494,
            1.1441148129526182,
            0.1070178343616891,
            -0.13910878619600067,
            2.2004332796595567,
            0.7200522927068447,
            -2.7821891080650185
          ],
          [
            2.502088758725693,
            0.6290547009458274,
            -4.086897299839241,
            -3.0315460086631862,
            -2.9336318831196717,
            -2.3903064420581592,
            0.4377623572958265,
            4.045125004858408
          ],
          [
            -2.7125112443768575,
            1.9570134333994738,
            -3.1119124045920694,
            5.3187100468188255,
            -0.9288522962056821,
            -4.517619727186031,
            0.02706616409445074,
            -0.05671792975723075
          ],
          [
            2.0978478001699536,
            0.6692358332049286,
            -1.40412298608863,
            -2.562852829910215,
            0.2724617116225068,
            0.8191629866499901,
            -0.11566004754169747,
            0.06007197358209312
          ],
          [
            -0.11981217916860869,
            -2.617718087214104,
            -0.1117999937958792,
            1.3481098905261006,
            -4.219286711329615,
            -1.001883687571554,
            -2.372381914688223,
            5.5371160266083015
          ]
        ],
        "biases": [
          0.04629974743451175,
          0.4490807119541997,
          0.22378620679764039,
          -0.41081345148093296,
          0.43375193833198955,
          0.04740975224563136,
          -1.227157440695245,
          -0.12949283268826234
        ],
        "inputs": [
          0,
          0,
          0,
          0,
          0,
          0,
          0,
          0,
          0,
          0,
          0,
          0,
          0,
          0,
          0
        ],
        "outputs": [
          0,
          0,
          0,
          0,
          0,
          0,
          0,
          0
        ]
      }
    ]
  }
};